digraph Tree {
node [shape=box, style="filled, rounded", color="black", fontname="helvetica"] ;
edge [fontname="helvetica"] ;
0 [label="NumView <= 0.06\ngini = 0.05\nsamples = 645816\nvalue = [222893.65, 5835.05]", fillcolor="#e6843e"] ;
1 [label="NumOfEventsInJourney <= 0.05\ngini = 0.47\nsamples = 33310\nvalue = [8837.15, 5239.65]", fillcolor="#f4ccae"] ;
0 -> 1 [labeldistance=2.5, labelangle=45, headlabel="True"] ;
2 [label="timeOfDay <= 0.75\ngini = 0.46\nsamples = 32330\nvalue = [8625.75, 4995.25]", fillcolor="#f4caac"] ;
1 -> 2 ;
3 [label="timeOfDay <= 0.08\ngini = 0.47\nsamples = 27460\nvalue = [7239.4, 4404.4]", fillcolor="#f5ceb1"] ;
2 -> 3 ;
4 [label="maxPrice <= 0.0\ngini = 0.43\nsamples = 3930\nvalue = [1109.5, 494.0]", fillcolor="#f1b991"] ;
3 -> 4 ;
5 [label="weekday <= 0.42\ngini = 0.28\nsamples = 61\nvalue = [19.25, 3.9]", fillcolor="#ea9b61"] ;
4 -> 5 ;
6 [label="(...)", fillcolor="#C0C0C0"] ;
5 -> 6 ;
13 [label="(...)", fillcolor="#C0C0C0"] ;
5 -> 13 ;
18 [label="weekday <= 0.58\ngini = 0.43\nsamples = 3869\nvalue = [1090.25, 490.1]", fillcolor="#f1ba92"] ;
4 -> 18 ;
19 [label="(...)", fillcolor="#C0C0C0"] ;
18 -> 19 ;
30 [label="(...)", fillcolor="#C0C0C0"] ;
18 -> 30 ;
39 [label="InsessionView <= 0.01\ngini = 0.48\nsamples = 23530\nvalue = [6129.9, 3910.4]", fillcolor="#f6d1b7"] ;
3 -> 39 ;
40 [label="NumCart <= 0.06\ngini = 0.48\nsamples = 21784\nvalue = [5640.25, 3684.85]", fillcolor="#f6d3ba"] ;
39 -> 40 ;
41 [label="(...)", fillcolor="#C0C0C0"] ;
40 -> 41 ;
42 [label="(...)", fillcolor="#C0C0C0"] ;
40 -> 42 ;
45 [label="maxPrice <= 0.18\ngini = 0.43\nsamples = 1746\nvalue = [489.65, 225.55]", fillcolor="#f1bb94"] ;
39 -> 45 ;
46 [label="(...)", fillcolor="#C0C0C0"] ;
45 -> 46 ;
57 [label="(...)", fillcolor="#C0C0C0"] ;
45 -> 57 ;
60 [label="NumCart <= 0.06\ngini = 0.42\nsamples = 4870\nvalue = [1386.35, 590.85]", fillcolor="#f0b78d"] ;
2 -> 60 ;
61 [label="gini = 0.0\nsamples = 909\nvalue = [0.0, 590.85]", fillcolor="#399de5"] ;
60 -> 61 ;
62 [label="gini = -0.0\nsamples = 3961\nvalue = [1386.35, 0.0]", fillcolor="#e58139"] ;
60 -> 62 ;
63 [label="NumCart <= 0.17\ngini = 0.5\nsamples = 980\nvalue = [211.4, 244.4]", fillcolor="#e4f2fb"] ;
1 -> 63 ;
64 [label="gini = 0.0\nsamples = 355\nvalue = [0.0, 230.75]", fillcolor="#399de5"] ;
63 -> 64 ;
65 [label="interactionTime <= 0.0\ngini = 0.11\nsamples = 625\nvalue = [211.4, 13.65]", fillcolor="#e78946"] ;
63 -> 65 ;
66 [label="timeOfDay <= 0.75\ngini = 0.03\nsamples = 455\nvalue = [157.85, 2.6]", fillcolor="#e5833c"] ;
65 -> 66 ;
67 [label="NumOfEventsInJourney <= 0.14\ngini = 0.02\nsamples = 384\nvalue = [133.7, 1.3]", fillcolor="#e5823b"] ;
66 -> 67 ;
68 [label="(...)", fillcolor="#C0C0C0"] ;
67 -> 68 ;
69 [label="(...)", fillcolor="#C0C0C0"] ;
67 -> 69 ;
74 [label="weekday <= 0.92\ngini = 0.1\nsamples = 71\nvalue = [24.15, 1.3]", fillcolor="#e68844"] ;
66 -> 74 ;
75 [label="(...)", fillcolor="#C0C0C0"] ;
74 -> 75 ;
84 [label="(...)", fillcolor="#C0C0C0"] ;
74 -> 84 ;
89 [label="NumOfEventsInJourney <= 0.14\ngini = 0.28\nsamples = 170\nvalue = [53.55, 11.05]", fillcolor="#ea9b62"] ;
65 -> 89 ;
90 [label="weekday <= 0.08\ngini = 0.0\nsamples = 147\nvalue = [51.45, 0.0]", fillcolor="#e58139"] ;
89 -> 90 ;
91 [label="(...)", fillcolor="#C0C0C0"] ;
90 -> 91 ;
92 [label="(...)", fillcolor="#C0C0C0"] ;
90 -> 92 ;
93 [label="NumOfEventsInJourney <= 0.23\ngini = 0.27\nsamples = 23\nvalue = [2.1, 11.05]", fillcolor="#5fb0ea"] ;
89 -> 93 ;
94 [label="(...)", fillcolor="#C0C0C0"] ;
93 -> 94 ;
101 [label="(...)", fillcolor="#C0C0C0"] ;
93 -> 101 ;
102 [label="NumCart <= 0.06\ngini = 0.01\nsamples = 612506\nvalue = [214056.5, 595.4]", fillcolor="#e5813a"] ;
0 -> 102 [labeldistance=2.5, labelangle=-45, headlabel="False"] ;
103 [label="NumView <= 0.17\ngini = 0.0\nsamples = 609088\nvalue = [212894.5, 531.7]", fillcolor="#e58139"] ;
102 -> 103 ;
104 [label="InsessionView <= 0.02\ngini = 0.0\nsamples = 594840\nvalue = [207932.9, 484.9]", fillcolor="#e58139"] ;
103 -> 104 ;
105 [label="timeOfDay <= 0.58\ngini = 0.01\nsamples = 489380\nvalue = [171045.7, 440.7]", fillcolor="#e5813a"] ;
104 -> 105 ;
106 [label="NumOfEventsInJourney <= 0.05\ngini = 0.01\nsamples = 273055\nvalue = [95411.4, 293.15]", fillcolor="#e5813a"] ;
105 -> 106 ;
107 [label="(...)", fillcolor="#C0C0C0"] ;
106 -> 107 ;
110 [label="(...)", fillcolor="#C0C0C0"] ;
106 -> 110 ;
111 [label="NumOfEventsInJourney <= 0.05\ngini = 0.0\nsamples = 216325\nvalue = [75634.3, 147.55]", fillcolor="#e58139"] ;
105 -> 111 ;
112 [label="(...)", fillcolor="#C0C0C0"] ;
111 -> 112 ;
115 [label="(...)", fillcolor="#C0C0C0"] ;
111 -> 115 ;
116 [label="NumOfEventsInJourney <= 0.05\ngini = 0.0\nsamples = 105460\nvalue = [36887.2, 44.2]", fillcolor="#e58139"] ;
104 -> 116 ;
117 [label="gini = -0.0\nsamples = 105392\nvalue = [36887.2, 0.0]", fillcolor="#e58139"] ;
116 -> 117 ;
118 [label="timeOfDay <= 0.08\ngini = 0.0\nsamples = 68\nvalue = [0.0, 44.2]", fillcolor="#399de5"] ;
116 -> 118 ;
119 [label="(...)", fillcolor="#C0C0C0"] ;
118 -> 119 ;
120 [label="(...)", fillcolor="#C0C0C0"] ;
118 -> 120 ;
121 [label="maxPrice <= 0.25\ngini = 0.02\nsamples = 14248\nvalue = [4961.6, 46.8]", fillcolor="#e5823b"] ;
103 -> 121 ;
122 [label="InsessionView <= 0.02\ngini = 0.02\nsamples = 12234\nvalue = [4263.35, 34.45]", fillcolor="#e5823b"] ;
121 -> 122 ;
123 [label="NumOfEventsInJourney <= 0.14\ngini = 0.03\nsamples = 5201\nvalue = [1807.05, 24.7]", fillcolor="#e5833c"] ;
122 -> 123 ;
124 [label="(...)", fillcolor="#C0C0C0"] ;
123 -> 124 ;
125 [label="(...)", fillcolor="#C0C0C0"] ;
123 -> 125 ;
132 [label="NumView <= 0.28\ngini = 0.01\nsamples = 7033\nvalue = [2456.3, 9.75]", fillcolor="#e5823a"] ;
122 -> 132 ;
133 [label="(...)", fillcolor="#C0C0C0"] ;
132 -> 133 ;
142 [label="(...)", fillcolor="#C0C0C0"] ;
132 -> 142 ;
151 [label="maxPrice <= 0.25\ngini = 0.03\nsamples = 2014\nvalue = [698.25, 12.35]", fillcolor="#e5833d"] ;
121 -> 151 ;
152 [label="NumOfEventsInJourney <= 0.14\ngini = 0.29\nsamples = 29\nvalue = [9.1, 1.95]", fillcolor="#eb9c63"] ;
151 -> 152 ;
153 [label="(...)", fillcolor="#C0C0C0"] ;
152 -> 153 ;
154 [label="(...)", fillcolor="#C0C0C0"] ;
152 -> 154 ;
155 [label="interactionTime <= 0.24\ngini = 0.03\nsamples = 1985\nvalue = [689.15, 10.4]", fillcolor="#e5833c"] ;
151 -> 155 ;
156 [label="(...)", fillcolor="#C0C0C0"] ;
155 -> 156 ;
169 [label="(...)", fillcolor="#C0C0C0"] ;
155 -> 169 ;
178 [label="interactionTime <= 0.1\ngini = 0.1\nsamples = 3418\nvalue = [1162.0, 63.7]", fillcolor="#e68844"] ;
102 -> 178 ;
179 [label="maxPrice <= 0.39\ngini = 0.05\nsamples = 2691\nvalue = [927.85, 26.0]", fillcolor="#e6853f"] ;
178 -> 179 ;
180 [label="NumCart <= 0.28\ngini = 0.05\nsamples = 2580\nvalue = [890.75, 22.75]", fillcolor="#e6843e"] ;
179 -> 180 ;
181 [label="weekday <= 0.58\ngini = 0.05\nsamples = 2569\nvalue = [887.25, 22.1]", fillcolor="#e6843e"] ;
180 -> 181 ;
182 [label="(...)", fillcolor="#C0C0C0"] ;
181 -> 182 ;
197 [label="(...)", fillcolor="#C0C0C0"] ;
181 -> 197 ;
206 [label="interactionTime <= 0.01\ngini = 0.26\nsamples = 11\nvalue = [3.5, 0.65]", fillcolor="#ea985e"] ;
180 -> 206 ;
207 [label="(...)", fillcolor="#C0C0C0"] ;
206 -> 207 ;
208 [label="(...)", fillcolor="#C0C0C0"] ;
206 -> 208 ;
209 [label="NumView <= 0.17\ngini = 0.15\nsamples = 111\nvalue = [37.1, 3.25]", fillcolor="#e78c4a"] ;
179 -> 209 ;
210 [label="NumOfEventsInJourney <= 0.14\ngini = 0.1\nsamples = 99\nvalue = [33.6, 1.95]", fillcolor="#e78844"] ;
209 -> 210 ;
211 [label="(...)", fillcolor="#C0C0C0"] ;
210 -> 211 ;
214 [label="(...)", fillcolor="#C0C0C0"] ;
210 -> 214 ;
215 [label="maxPrice <= 0.4\ngini = 0.39\nsamples = 12\nvalue = [3.5, 1.3]", fillcolor="#efb083"] ;
209 -> 215 ;
216 [label="(...)", fillcolor="#C0C0C0"] ;
215 -> 216 ;
217 [label="(...)", fillcolor="#C0C0C0"] ;
215 -> 217 ;
218 [label="interactionTime <= 0.51\ngini = 0.24\nsamples = 727\nvalue = [234.15, 37.7]", fillcolor="#e99559"] ;
178 -> 218 ;
219 [label="NumOfEventsInJourney <= 0.14\ngini = 0.2\nsamples = 670\nvalue = [219.1, 28.6]", fillcolor="#e89153"] ;
218 -> 219 ;
220 [label="gini = -0.0\nsamples = 475\nvalue = [166.25, 0.0]", fillcolor="#e58139"] ;
219 -> 220 ;
221 [label="InsessionView <= 0.02\ngini = 0.46\nsamples = 195\nvalue = [52.85, 28.6]", fillcolor="#f3c5a4"] ;
219 -> 221 ;
222 [label="(...)", fillcolor="#C0C0C0"] ;
221 -> 222 ;
233 [label="(...)", fillcolor="#C0C0C0"] ;
221 -> 233 ;
238 [label="NumCart <= 0.33\ngini = 0.47\nsamples = 57\nvalue = [15.05, 9.1]", fillcolor="#f5cdb1"] ;
218 -> 238 ;
239 [label="maxPrice <= 0.18\ngini = 0.45\nsamples = 55\nvalue = [15.05, 7.8]", fillcolor="#f2c2a0"] ;
238 -> 239 ;
240 [label="(...)", fillcolor="#C0C0C0"] ;
239 -> 240 ;
249 [label="(...)", fillcolor="#C0C0C0"] ;
239 -> 249 ;
254 [label="gini = -0.0\nsamples = 2\nvalue = [0.0, 1.3]", fillcolor="#399de5"] ;
238 -> 254 ;
}